,OverallCond,BsmtUnfSF,BsmtFullBath,BsmtHalfBath,HalfBath,BedroomAbvGr,GarageCars,WoodDeckSF,OpenPorchSF,3SsnPorch,ScreenPorch,MSZoning_dum_0,MSZoning_dum_1,Street_dum_Pave,LotShape_dum_0,LotShape_dum_1,LandContour_dum_0,LandSlope_dum_0,LandSlope_dum_1,Neighborhood_dum_0,Neighborhood_dum_2,Neighborhood_dum_3,Neighborhood_dum_4,Condition1_dum_0,Condition2_dum_0,Condition2_dum_2,BldgType_dum_0,BldgType_dum_2,HouseStyle_dum_0,RoofStyle_dum_0,RoofMatl_dum_1,RoofMatl_dum_2,Exterior1st_dum_1,Exterior1st_dum_3,Exterior2nd_dum_3,MasVnrType_dum_1,ExterQual_dum_0,ExterQual_dum_1,ExterCond_dum_2,BsmtQual_dum_1,BsmtCond_dum_1,BsmtCond_dum_2,BsmtExposure_dum_1,BsmtFinType1_dum_0,BsmtFinType1_dum_1,Heating_dum_0,HeatingQC_dum_0,HeatingQC_dum_1,CentralAir_dum_Y,KitchenQual_dum_1,FireplaceQu_dum_0,FireplaceQu_dum_1,FireplaceQu_dum_2,GarageType_dum_0,GarageType_dum_2,PoolQC_dum_0,PoolQC_dum_1,SaleType_dum_2,SaleCondition_dum_0,SaleCondition_dum_1,SaleCondition_dum_2
pc1,-0.136810929583,0.158387594203,0.0925857165899,-0.0346191970315,0.163099718647,0.00900054634899,0.315230395129,0.19284880606,0.251484742852,0.0193866794616,0.0122610381424,-0.175672930453,0.0571636828885,0.0077420576331,0.12550529319,0.0519752697995,-0.0621694891826,-0.0234781773601,-0.00244375321834,0.107088588024,0.226002840593,-0.0653430019493,0.018642606933,-0.0415430141713,0.00963072346753,-0.0104553971953,0.0677856632855,-0.0896967858437,0.113426424979,0.0605295251948,0.0180515386948,0.0179757094312,-0.228864761223,-0.0839337902671,-0.0668502424382,0.183648299695,0.269316996493,0.126125731938,-0.00905700485183,0.178116612346,-0.150000226002,-0.0030232798902,0.0809562543803,0.139498728922,-0.150754045047,-0.103965635426,-0.227052750924,-0.115354830368,0.194234897354,0.117676909533,0.121976715672,0.0727643919569,0.0550308152577,-0.293186192709,-0.0380619993962,0.0191224949882,0.0309146711972,-0.0130938026918,0.175041628186,-0.0562493846393,-0.034261363689
pc2,-0.0429757184195,0.162880375527,0.00153871568656,-0.0421466588078,-0.184572085774,-0.0412965211356,0.0960045622308,-0.0350216932133,-0.0274772613326,0.0122248581198,-0.000169008769833,0.0997088120496,-0.0229559586926,-0.0458747659453,-0.0628614182521,0.022070866384,0.128520271017,0.0420534182586,0.0657413114861,0.0491548633721,-0.0565217823645,-0.0135181296604,-0.0334401610319,0.0555103161142,0.125702320655,0.0411893047396,-0.0659161500391,0.133154163739,-0.188277302489,0.188756249717,0.0156889317186,0.0780750734495,0.114383384292,0.0988153069571,0.0786680831684,0.191704652703,-0.0655899093333,0.382786973244,0.0182334919608,0.333989476156,0.16759240286,0.105282789889,0.0953287654412,-0.0230884174596,-0.0679628655806,0.125587521379,0.0165404050991,0.00766831157092,-0.235177442269,0.364308012449,0.166993437051,-0.26865291609,0.0803463999497,0.141975364121,0.0532096970183,-0.0135528417901,0.0289222098859,-0.0126567731162,0.195071043024,0.0123223689622,0.0344682751074
pc3,0.0991759895075,-0.228070806006,0.324749194835,0.0837621163105,0.0153495725838,0.0275411319156,0.00245573561969,0.147874352219,-0.0338422799298,0.0627821602211,0.137020295527,-0.163943726081,-0.217307706194,-0.145238549592,0.179149538731,0.13097972646,0.250717840318,0.241149477907,0.265212571407,-0.034040113621,-0.10424045075,0.13962984263,0.0147893078905,0.0770870743364,0.0284466824427,0.00648008370648,-0.16423607936,0.0276334329951,-0.044944143432,0.122550609204,0.0923129491964,0.152559681813,0.0645620457267,-0.0528401987619,-0.026206036139,-0.022710849714,-0.124365734909,0.0540700007861,-0.00426122378613,0.00807007784583,-0.0826358180259,0.113392143158,0.277956948744,0.197038423686,0.182780956217,-0.0321638910867,0.0720141591789,0.0247523679285,0.10149785182,0.00669991017564,0.0326644768611,0.168624131782,0.00274215620264,-0.0890419974726,0.0944507286464,0.108713735658,0.157181171979,-0.0206031925877,-0.165619926424,-0.0470079099444,0.0458043292036
pc4,0.0165325541193,0.0203446081765,-0.226921368054,0.00269085477406,0.370117806435,0.401749198173,0.0778975532524,-0.0382696476785,0.144416270171,-0.0350473877375,0.0657505264984,0.0249548918388,0.116429190566,-0.0169786555804,0.0289103043294,0.12453071361,0.168649404134,0.0740807459998,0.0456226921197,-0.126244468687,0.143818888984,0.01069914254,-0.039667556912,0.110713487512,0.0437552895821,0.0412911609035,-0.190474554125,0.115095635183,0.437219473267,-0.0607033460332,0.0892521338405,0.118813751253,0.0317033879039,0.038764574193,0.0713510575542,-0.0905509328216,-0.0170815683162,0.0630008208634,-0.0202175185426,-0.00290161632658,0.120056129176,0.0150338481943,-0.0815929263276,-0.221521984953,-0.065322461475,0.11736185749,0.0194466611283,0.099456087377,-0.179683997048,0.0542277273744,-0.00726192094974,0.114674772072,-0.0313516446779,0.0555651850738,0.0546038226822,0.144379647459,0.172974961327,0.00832365286721,0.0110934679066,0.0238530931678,0.0430430799199
pc5,-0.149791815634,-0.156815995254,0.0836459057676,-0.0345519686402,0.0735533644783,-0.172318865426,-0.0611199389843,0.000644434769379,0.0203889667377,-0.0282077601561,-0.0298065583519,0.200110176187,0.211890072385,-0.0870073249418,-0.156488528769,0.149075445976,0.21384610898,0.0758127203859,0.266249021836,0.0111460703566,0.0733158773178,-0.151644022656,0.416611651686,-0.106757038884,-0.118961225567,-0.130435341058,0.437401405081,0.0735474447661,0.114794011179,-0.159233247258,0.0977350579597,0.110638621551,-0.0179124104473,0.080188289828,0.130250223095,0.00813660935529,0.136042488446,-0.0205399350245,-0.0306713563502,-0.0202905474987,0.0101860541735,0.14810857614,0.0893475277601,0.136178549721,-0.0408522285913,0.0521720007149,0.0252433706284,-0.0342213787806,-0.123710520929,0.0148844502551,-0.08436666795,-0.00527268600391,-0.0243203364397,0.0674694924277,0.0550165542896,-0.0553656272666,-0.0404580090538,0.0541837629718,-0.017898458896,0.0380610980717,-0.0386390216137
pc6,-0.240306618887,0.0102443946474,0.0709601031247,0.0132313386602,-0.0535314306045,0.00458339844367,0.0368142052512,-0.00498496450579,-0.0659520066337,-0.0182475271898,0.0660125734774,-0.144014297874,-0.166919771111,0.0901381239851,0.00663146970519,-0.068146266228,-0.18420468774,-0.252526989007,-0.0161348758485,0.218627938372,0.0207696390835,-0.09687591877,0.0378856177156,0.0135735446794,-0.0628638208934,-0.0934748953289,0.0214514930301,-0.0675792879722,-0.0801906361992,0.0725273846741,0.126533155606,0.148409806136,-0.219817973663,0.356724010047,0.316530387024,0.020507455937,-0.0144239069889,-0.0540283057901,-0.00856757784503,-0.0537163509001,0.155470984566,-0.0374553427969,-0.0892062967802,0.00469370210483,0.170252549002,0.176954852309,0.191062220828,-0.0629484374885,-0.0990014872534,0.0288119354428,-0.0799480242289,0.159507005854,-0.0363809082498,-0.114907834919,-0.0487201060391,0.25452820428,0.272293732544,-0.0269822228813,0.00504831407445,0.0418001956843,0.142092112688
pc7,0.0825809523249,-0.252552692955,0.200519617966,-0.0878185749036,0.101805729784,-0.0569193435511,-0.0938859878128,0.00389635029422,0.0363480937332,-0.0644743595556,-0.0150019819887,0.213326024365,0.0874045827545,0.0842219158976,-0.0430215693233,-0.097095948421,-0.134503307553,-0.0998545959259,-0.213454495982,0.113462418036,0.0421179657199,0.0196251835028,0.075826151108,0.19262129962,0.308150249823,0.250059607327,0.208976833397,0.0141658399221,0.132194618953,0.0313187496509,-0.143720047176,-0.018084342203,0.0258266754439,-0.165966402002,-0.16820740953,-0.0523747411575,-0.0795252180888,0.133311076165,0.0103892480972,0.0995421193096,-0.0109204041648,-0.0588503076875,-0.0852604940786,0.210048538524,0.0062666713034,-0.0922640960715,0.0576818847497,-0.075771340712,0.000413043324186,0.130363900258,-0.121137064149,0.00803994553035,0.0890598778412,0.138976345158,-0.109534725976,0.290155221425,0.289025311235,0.0111756976641,-0.0519191099447,-0.00555400817713,0.0447714993241
pc8,0.228293710861,0.0349927312123,-0.133682800933,0.174423366231,0.0131595063804,-0.00851035204331,-0.0853489657252,-0.0940453031548,-0.0483151024892,0.0654220966312,0.203551940135,0.0474067192031,0.0222266501205,0.139830989906,-0.131166090787,0.0670018471768,-0.0393961759998,-0.0425256519412,-0.0231185677145,-0.216325984068,-0.0750157990181,-0.235604282903,0.122727132088,-0.113527717143,-0.235185558832,-0.14500118085,0.0799196573978,-0.114798109682,-0.0156756502929,0.0640537479537,0.100238765632,0.200326235373,0.133714591251,-0.0195215428432,0.0357255801691,0.0687846564083,-0.1122340815,0.022836604264,-0.0339870667808,0.0421895365726,-0.210788157528,-0.0818326114855,-0.0155693641693,-0.103940462125,0.0307868165036,-0.188395438416,-0.0428712527175,0.061586224271,0.260106982759,0.0250060235306,0.255921297446,-0.186648087482,0.124936101983,-0.0122765259649,-0.0778104200435,0.249955121124,0.298121565874,0.0190382570381,0.0814946108314,0.062666556493,-0.0496252639298
pc9,0.115996977303,0.167344940926,-0.163035650052,-0.0223154326712,-0.0414427793146,-0.102843857319,-0.0668457372235,0.0547432728485,-0.00815407251948,0.0818464625186,-0.118297111984,0.00900272216462,-0.0792444922635,0.114892480782,0.0796031371926,0.0906967374778,0.0889908248445,-0.160332359122,0.242257099031,0.00984139434527,-0.0668144324337,-0.0837345278762,0.130628710369,0.247269115055,0.33869239339,0.392912168808,0.0192237070441,-0.168511801818,-0.0954971371922,-0.0319927990082,0.250499784452,0.299424910112,-0.06813765869,0.0691461256464,0.0412285029753,0.00761204378382,0.0310189616753,-0.00157184170687,0.0151157582842,-0.0844794269551,-0.0490112354352,0.119806459694,-0.0435445413089,-0.143701765823,-0.0889328570057,-0.112518017525,-0.0819153842601,0.0490247627262,0.0994803500099,-0.0710777753024,-0.0785027589837,0.0521927018851,-0.124856285636,0.0335395811779,-0.228293138521,-0.13858798798,-0.00963413436558,-0.0495403311559,-0.023049412505,-0.0740262107397,-0.0734248908624
pc10,-0.221011653234,0.095143961477,-0.00150986344053,-0.104769118387,-0.203350905437,0.0209227341591,-0.0210808240013,-0.0953445687218,0.0252380489273,0.0440574815934,-0.0923686666857,-0.044555105427,0.188413084768,-0.127217837486,0.00540750751592,0.0540122124924,0.178923401392,0.0855708815102,0.0636905779196,0.012511421716,-0.0152404331956,0.0825130218829,-0.154594691699,0.17470997967,-0.0325919759573,-0.0273812311964,-0.0589022418952,-0.0380569755975,-0.163120208622,-0.198466555215,-0.0753616440799,0.170075982862,-0.0226395176057,-0.114124771758,-0.220388181023,0.14443073391,0.107904761801,-0.170650949472,0.0116081126179,-0.127706702188,-0.0275204404363,-0.0349820025903,0.0173920388217,-0.0105715613185,-0.150472607024,-0.100203011268,0.0622217125724,-0.155953000153,0.0127815772705,-0.205666533328,-0.0654383495061,-0.131211476543,-0.114277170742,0.0740937784025,0.120312380368,0.185945514639,0.308837451099,0.035767234289,0.233410451213,0.218676915102,0.256435550503
pc11,-0.0223219902685,-0.113873442058,0.0819081263593,-0.079858088887,0.0305935610515,-0.116140389762,-0.0948264431462,-0.147512258023,0.0362835788773,0.143604145843,-0.182591808465,-0.11226327732,0.130764618278,0.10602144737,-0.0121835703022,0.0336197436858,-0.0580951056287,-0.27222811338,0.248738775767,0.00720562497559,0.0193246477657,-0.0532109138463,-0.258134827356,-0.0695813295125,-0.208740012466,-0.224205396137,-0.172838704821,0.0394203031471,0.0183460308467,0.00149430863799,-0.111066452628,0.117313041539,0.0592293382769,-0.17276766914,-0.159140404426,-0.019909137895,0.0400717895458,0.0519953631339,0.0445107311553,0.0794625317643,0.0182298366121,0.401075447059,-0.134422198545,0.0170665599928,0.0983970902917,0.0594739622002,-0.159648715193,0.12952399863,-0.0936340309113,0.0782856175688,-0.150916812233,0.0264382925607,-0.0200944581152,0.0223724694242,-0.253350747242,0.0588539887261,0.0823801418542,-0.0383976762453,-0.0198826362483,-0.180968519493,-0.0996413876707
pc12,0.0287515174914,-0.228784910363,0.217759682714,-0.148041201817,0.0414144180085,-0.162226552122,-0.0105957226271,-0.165824622755,0.0106703795232,0.07148750646,-0.0568767245134,0.0420234401376,0.18647072367,-0.0811874406365,-0.00136823120927,-0.0866731566334,-0.107008820402,0.0488342377338,-0.138407010993,-0.191212152926,0.0801432751666,0.121269211627,-0.289013433846,0.107378952414,0.0332357201069,0.053672320974,-0.0752720090061,-0.0401821466343,0.0499146990434,-0.0633591626148,0.158711220439,0.166709609937,-0.0243207907318,0.358876595583,0.307964161778,0.0632121943084,0.0185140216242,-0.0113704007365,-0.0564145067783,0.055911891235,-0.12884248543,-0.0860233813863,-0.0227150773704,0.140464384359,-0.0662275354469,-0.0926207755927,-0.244589334643,0.26853571216,0.0518866926425,-0.0438135194001,0.00199489083966,-0.0864075933891,-0.0630513773612,0.0205953839396,0.213687316499,-0.0218394703962,-0.0466455138458,-0.0586643757563,0.0468845135162,0.0346705537739,-0.102310873934
pc13,0.0844283427034,0.151454158638,-0.0739802684499,-0.0800563329629,-0.120763938968,0.00699365112412,0.0173633025599,0.203800849839,0.017736737058,-0.115332359691,-0.0564732004715,0.158320145866,-0.203951012215,-0.0562755878592,-0.0783726828526,0.023818735257,0.0524157492663,0.129511704895,-0.11768398953,0.352674183839,-0.172188143981,0.0840481135541,0.0179108256552,-0.0597524580443,-0.135168048289,-0.0767464720844,0.0304369040931,0.0644342999559,-0.0460541734288,-0.0704282445082,-0.00618334674412,0.0144716832151,0.0674350298095,0.0165888112746,0.0506796033111,-0.108180081953,0.202160917326,-0.0692887610495,0.110334358717,-0.0115696252809,0.0222207779243,-0.0337027710915,0.0366535863516,-0.025020602392,-0.239822686553,-0.0334037634543,-0.35718966964,0.34151623791,-0.0488041564694,-0.00732325702116,-0.0690056748431,0.0409087308593,0.0177547702204,0.0494861215257,0.0494738818156,0.21792858854,0.208923343358,-0.0865943036293,-0.201351830425,-0.19001346576,-0.0207014431073
pc14,-0.119459970963,0.138977172279,-0.162595447747,-0.0113395897623,0.0233300097837,-0.178479424124,-0.0357634619675,-0.106944091134,-0.0972340239679,0.0253468114958,0.102576186517,0.0317299485016,-0.0409412743693,-0.207559308146,0.00873281262566,-0.00236747616519,0.0677342748539,0.0670868572862,0.104211871862,0.0871020778132,0.257076478123,0.218386069931,-0.0220352859301,-0.0944330584506,0.0156178654452,0.00870421707409,0.115080014957,-0.162967424316,-0.046112580361,0.0811909077024,-0.116927550928,-0.109113787934,-0.0581759417712,-0.0450150318003,0.065217802188,-0.0914952280871,-0.139191363513,0.190723087999,0.0973474945879,0.0446947231659,-0.12780089568,0.1850050989,-0.222065049594,-0.20822587683,0.070755786557,-0.249923642254,0.0742084978002,0.0695804667142,0.108302201214,0.105823241058,-0.174183113338,0.170799225445,0.0312172963088,-0.0225378158063,0.22293341248,0.136793801881,-0.00264608439139,-0.256695556406,-0.0295731642739,0.236951926191,-0.146869135725
pc15,-0.00250974732607,-0.163687748726,-0.10372737888,0.259245756798,0.111271851619,0.0681515003669,-0.0899032155689,0.10527374924,-0.157695929633,0.0672317097616,-0.34069617743,-0.0456030481268,-0.116641910214,0.226944197173,0.100238174465,-0.0918896556623,0.133313958405,0.112155130466,-0.0409146768404,0.129385867819,-0.0378931622299,0.0910980972667,0.0337149939094,-0.0382369917894,-0.020227737143,-0.0994689852177,-0.0224035075031,-0.175061390482,0.150548101527,-0.251033855751,-0.113418398078,0.0180147250835,-0.168206976332,0.181602545982,0.0148167535844,0.0377608028785,-0.0936896699726,0.0542461919408,0.127589124969,0.093712729265,0.0369139551679,0.129060753105,-0.0313870495133,0.0676805474338,0.00624829131615,-0.237433714916,-0.0105341336722,0.090053019455,0.0637688872499,0.118195918104,0.00938197143368,-0.135127198437,0.193859551882,0.0346035244746,-0.0184874114433,-0.115544931869,-0.0592206372813,0.0413092936296,0.0976020132127,0.0495245171059,0.364018612004
pc16,0.0192729157059,-0.00475412137819,-0.0743623173338,0.42312667553,-0.14506565097,0.00367458006902,0.0250012018346,0.0647776997202,0.0344906584004,0.0259792445429,-0.0901667231072,-0.0421860472753,0.0645049088701,-0.0630673479126,0.0436158740766,0.0757749626317,-0.130799274179,-0.0625771155756,0.114019543334,-0.118943728749,0.0118646749251,-0.180211678364,-0.00823564937917,0.00376040144386,0.158661512333,0.215001238392,0.0333171533503,0.0402440783019,-0.0817431404498,-0.0622521475434,-0.272122592924,-0.14142288756,-0.0589842649675,-0.0444378336898,0.084267910562,0.0152008231163,0.0375744781591,-0.0142879288859,-0.155445965159,-0.0149679912388,0.0775936366212,0.117346212141,0.12136033915,0.0502689819554,0.0626234059411,0.172271299493,-0.180317525127,0.312160555053,-0.0598010755324,-0.115864576114,-0.0797067666378,0.0560029433076,0.153506677462,-0.109661974435,0.153386430149,0.20482389923,0.021529713745,0.245938288667,0.07474220109,0.242487683971,-0.0985202547267
pc17,-0.0581548525951,0.00727572719399,-0.00716109175757,-0.114554142335,0.0725083259391,-0.0290184255749,-0.0134162969598,0.0153451789357,-0.055437138017,-0.236394367468,0.155040538411,0.0146078124096,-0.0133994803796,0.134794658756,0.321614359799,-0.184693916995,0.0277552056934,-0.0420261671456,0.108971787802,-0.0614310252516,0.00767267633379,0.201583692041,-0.0793957420204,-0.160252940773,0.0645789533953,0.0620662229631,-0.0252578777728,-0.144924977137,-0.0285691488947,-0.143672680428,0.087467246145,-0.15139314551,0.135026998587,0.0692228494367,0.123735458894,-0.0630156650903,0.140997094085,-0.151002964112,0.181875616498,0.0166394966474,-0.116025429529,0.275829922916,0.0732413737671,0.057155254174,-0.201685443391,0.0929017622057,0.0894770047001,-0.0970864778179,-0.0754584256942,-0.010445756298,0.218816690568,-0.137853589004,0.108616119388,0.079505672338,-0.176871315629,0.20058511483,0.0182493074982,0.221145228303,-0.0716075950017,0.179040505121,-0.182243080798
pc18,0.0511064856177,0.0280489646222,0.0835638497484,0.0329832958629,-0.00588235974929,0.194798870848,0.0195954496815,-0.0395412139647,-0.0156973086445,-0.244965027434,0.165480351564,0.136884564279,-0.0846600554887,-0.154310881249,-0.266121371616,0.0799856316139,-0.177525112548,-0.283137648001,0.144926006298,0.101293201172,-0.126336951718,-0.0564426541681,-0.100265942353,-0.00145790568373,-0.0503499941289,-0.0237900540206,-0.177677980859,0.102266765323,0.049329790259,-0.0440141524961,0.260337687477,-0.0292506495542,-0.1390586053,0.0916375304688,-0.160117749715,-0.069281846872,-0.0999244894045,0.0238746951,-0.0588864694345,0.0585444299044,-0.171261011463,0.128964759152,0.136834090545,0.0995636587629,-0.228004357204,-0.178951545276,0.0250049018537,-0.0296464317972,0.0516032795071,0.0226612078859,-0.264807408033,0.0266677210784,0.208782317172,0.044740686646,0.028132404749,-0.0723410732688,-0.139285727372,0.0586089509652,0.044746978111,0.216108575921,0.10414992288
pc19,-0.0370004569743,-0.00333544798942,-0.00739448242949,-0.131927174306,0.111617790778,0.000915896728006,-0.0309492680227,-0.173568797472,0.0510966720771,-0.247176297653,0.211880467988,-0.0906597821494,-0.0440230359131,-0.0715482946963,0.0675562000931,-0.2239717983,-0.048537186454,0.0491643377362,0.0271423428506,0.0257446117643,-0.105785853078,-0.304937925072,0.0628923127787,-0.0275031655794,0.051352451465,0.17126074417,0.0278087865737,0.00478776068196,0.00588195118414,-0.167655938553,-0.114325000291,-0.176138499452,-0.0172029597435,0.0380654978584,-0.0562305877493,0.0700184320955,-0.0201481386453,-0.0265249372924,-0.207460090254,-0.0633269995086,-0.0544474171858,0.321780738658,0.0799412664976,-0.0327024601614,0.0883746357521,-0.0501971444103,0.0159964633801,0.186839289273,-0.00343914672976,-0.0398187009853,0.140173572812,-0.131096847267,-0.143550753504,-0.0567756212848,0.114982827767,-0.0194778183937,0.056239042225,-0.336013318053,0.0882225380802,-0.243477090942,0.25004635255
pc20,-0.0463957482521,0.0827570023032,0.064080368254,-0.170330343639,-0.0703525522848,0.0137162359019,0.00889590538252,0.249136408397,-0.131418376342,-0.284688728715,-0.265927373548,0.0149654068855,0.00303585567323,-0.0580370325696,0.19000640458,-0.320636484662,-0.0481159872526,0.0108418982874,0.0268183759381,-0.245840602791,0.157140125353,-0.0355511094282,0.120534931809,0.137473450009,-0.111143456618,-0.0799968103056,0.0391551755249,0.313218468478,0.000708175172573,-0.0444427919389,0.117982548045,0.132004262656,-0.114535074933,-0.0852802864905,-0.0826456514053,0.152246631543,-0.129562402068,-0.0375091653656,0.026872699116,0.0608587600065,-0.00363790822997,-0.0699332279766,0.0801793461021,-0.220286246259,0.15560847922,-0.04951331499,0.0650554978068,0.150262739221,0.0139437547558,-0.0653781404855,-0.0930176214996,-0.0210620960159,0.264481688088,-0.0273263800392,-0.0565198146724,0.0267127450545,0.0306342167003,-0.0825118360543,0.0126620195483,0.0134950985732,-0.147467796125
pc21,0.0991280812715,-0.00376731935518,-0.089298697647,0.171748036058,0.0478943389934,-0.191166736698,0.042842628418,0.0728491740593,-0.0735959652522,-0.236847750624,-0.00738352646107,0.0701512808887,0.111420877152,-0.326723779631,-0.0885895094067,0.244363570255,-0.175803987387,-0.0480556342117,0.092323454732,0.0215395234863,0.311222861363,0.257401485128,-0.160722381951,0.0820263785507,-0.022067474279,0.0164920468336,0.0706491542598,-0.165984457577,-0.0529535628145,-0.0711484150163,0.101767069575,-0.0551176669413,-0.00164365106231,-0.00127976437569,0.0296439226896,-0.024831121829,0.0110541878203,-0.000772495178852,-0.0140342755015,-0.0130259887365,0.0322833587427,-0.0263281146116,0.0725206395708,-0.101590858712,0.161624714384,0.108368166647,0.0335153023827,-0.0173839006066,0.0359713568174,-0.0684610081775,0.141785923344,-0.101681966819,0.136524424458,0.0746916976448,-0.127482986587,-0.0236914320764,0.0790294796587,0.0970214452944,0.00595060826932,-0.37730207355,0.25874820523
pc22,-0.213415889671,-0.00849425475717,0.0802661600806,-0.212615390984,0.0192859957106,0.0328134347784,-0.058954772712,0.0784058218314,-0.0188894099224,-0.387149803319,-0.0651516760585,-0.32337427788,0.193633829465,0.0754482822482,-0.182095044537,0.314358484299,0.0797681240057,0.0892749009946,-0.0879707038535,-0.125452938618,-0.117384208459,-0.234762717752,0.0466947141624,0.129988762476,0.0146880840312,0.0475152482759,-0.0966714766036,-0.208571834904,-0.109056108106,0.0633801004035,-0.0302390977412,-0.128157873038,0.134352873666,0.00990226509174,0.0982637696259,-0.112966859446,-0.0554790546681,0.0502288265622,0.301308555396,-0.0407114749958,0.0986638557015,-0.0261083286478,-0.0914713014806,0.0141417411531,0.0616014536946,-0.0970470715439,-0.0417473311432,0.0939773621454,0.114502154412,0.111650089444,-0.0767881548428,-0.00133003689339,0.0986020779121,-0.0578954733911,0.0222792970303,0.00440586841982,-0.0394030082933,0.119913639173,-0.0205907254038,-0.0128273317805,-0.0109803491141
pc23,-0.0810243669272,-0.039174561686,-0.0185126537193,-0.140926998998,0.0917668534998,0.0459369015868,-0.0685230894729,-0.10751415258,0.0108105606802,0.311968597116,0.123624287334,-0.0694723828602,-0.174871394935,-0.282401429199,0.0514527125168,0.0815920296088,-0.119197249583,-0.16196087473,0.0362026380714,0.0707470266786,-0.0776761319315,-0.0448600425431,0.10260288701,0.165492807449,0.0126814641631,0.0649104825179,0.0115749545503,0.0978409804965,0.00776154655744,-0.282854656171,-0.0727455451123,0.110304112714,-0.109123447159,-0.0309909136586,-0.0845431946316,-0.11339264662,0.00275599940385,-0.0498778736212,0.332420069385,-0.125642234293,0.0327287667524,-0.0658216377699,-0.0970182285581,0.0227658149132,0.0740543519299,0.103047518918,-0.0649003588759,-0.0320255043295,-0.00953058632045,0.0943724919424,0.219074501801,-0.232666724065,0.350088721525,-0.0873081644518,0.183397874975,-0.0567072652598,-0.0225831648609,-0.0114488590612,-0.0470638612631,-0.03662749992,-0.150702992451
pc24,0.0382392446059,-0.0702784242352,-0.0590167771468,0.252102168863,-0.0368905172974,-0.0233319017881,-0.0383591185099,-0.0108022561272,0.0295690590477,-0.0633654247498,0.166587161598,0.020588617391,0.108922284454,-0.068347375718,0.119290642463,-0.18021238385,-0.161534632155,-0.0673301227495,-0.0103365217849,-0.0123625894942,0.00430896921266,-0.0886193496593,-0.0288941092832,-0.0553200996251,0.0184766939315,-0.0165251008752,0.0917521465918,0.0391195270406,0.0661229324103,0.0423109701176,0.0476256814326,0.101241001257,0.0768669602365,-0.0493641497981,-0.0563113952548,0.176098587981,-0.0558757111624,0.0134098244338,0.680447825618,0.000627556709547,-0.001758043352,-0.0278468611632,0.195321333384,-0.048861817451,-0.0370084432831,0.0448303814689,-0.0475050521805,0.0561474923587,0.00395959332287,0.0704518295355,-0.125159231869,0.132979060328,-0.337722570332,0.0312180481586,0.113966940026,-0.0960467200804,0.0134391804379,0.0451190217129,0.0831969326943,-0.0358841461854,0.0996058192578
pc25,0.099333393266,0.00665614769051,0.0927649146287,0.156065306854,-0.102557543051,0.169611790222,-0.00678932217947,0.112907611452,-0.00186433769115,-0.0146611804919,-0.159638384842,0.0201565918249,0.107110576496,-0.076914833023,-0.0893277717791,0.125831514111,0.0440556570801,-0.0338806666203,0.129052445646,-0.0968668375526,0.0120002281992,0.0378930495956,0.0360536530327,-0.112581759062,0.0309062453252,0.138465268182,-0.103269671175,0.398681498671,-0.0343467188534,0.0108444152198,-0.131584374964,-0.20023993513,-0.0726131351624,0.179925468599,0.202834893303,-0.040253089235,0.112724149197,-0.0121676360192,0.234792761444,-0.113887576423,-0.245063330401,-0.0281381934871,-0.177968349336,0.103315787625,0.0698589125306,-0.0781351961761,-0.0162717809551,-0.176037983377,0.0166848148852,0.00160421075014,0.105063070196,-0.0905883813487,-0.110447402383,0.0231219123356,-0.229232422628,0.137260623083,0.0049264212968,-0.357730737351,0.074503871077,0.0019510925975,0.0248111674917
pc26,-0.0229482940555,0.12566828427,-0.00744456543263,-0.159570741354,0.0280748557832,0.183237170244,-0.0688761525123,0.0685432077952,-0.131194226546,0.168304726322,-0.20770585661,-0.010014808674,0.0540153262177,-0.265394687687,-0.08828698645,-0.281392773857,-0.0431776502827,-0.108087002357,0.0549586476241,0.00533957451305,0.0259759384102,-0.0621712865623,0.00995975904413,-0.0655757212905,-0.0139646817704,0.0679335101424,0.0507825042391,0.116357562326,0.040224274252,0.220734922191,-0.0258136176437,-0.023890709947,0.0717812545173,0.0371708303329,0.129632891639,-0.153454054892,0.00550618326435,0.0879140785755,-0.0368032774115,-0.0543101857511,0.0402421282966,0.178852897215,-0.00175940306542,-0.00904609339736,0.0105454026725,-0.290132195293,-0.0237389258086,-0.0950428948583,0.119564859527,-0.0262611115614,0.151183579875,-0.0260438573849,-0.183134571709,-0.0676456146716,0.131354543232,0.0263309871718,0.0597859116264,0.486254647368,-0.12805241551,-0.126405737956,0.11705582643
pc27,-0.0557429225681,0.108462488709,-0.0336748732148,0.0973310879952,-0.00167019623916,0.00214139328852,0.115025047016,0.0395427185044,-0.0523447200583,0.249654149744,-0.012873611318,-0.0668239663828,0.276266548079,0.15447683904,-0.0659761646046,-0.206015010001,-0.0385135641133,-0.0487960176915,0.0396392488621,-0.150331542611,-0.0387089721593,0.0682653332625,0.0382494497442,-0.0123392802364,0.037131190266,0.0648299271049,0.0442633491705,-0.0515995220285,-0.0218618167192,0.174901365505,0.320318161247,-0.0652398386423,0.182684531672,-0.0841931470821,-0.0279562705486,-0.235786513259,0.174431324917,-0.122048800176,0.0600874637984,-0.000425951784922,0.196070972731,0.0734789712885,0.106550994867,0.0995235586755,-0.0105992766203,0.0328140645454,-0.0206958476824,-0.0318216515081,0.037687542924,-0.0170195944717,-0.0952649413713,-0.0353262949623,0.304886033522,-0.00144499232601,0.191721511985,0.114824378116,-0.060456185485,-0.346875172923,-0.074288987635,-0.0464453658907,0.242919805945
pc28,0.185263362255,-0.0124218110344,0.0800579296311,-0.0444603042908,-0.0245673703321,0.11527794756,-0.0116901771652,-0.0512483958073,-0.0751288291418,0.00588468548228,0.20321212551,0.00058330864438,-0.00208559874249,0.143774166683,0.00130797363287,-0.0119180576013,-0.0360655202431,-0.0670929873045,-0.00850646463126,-0.0177674945463,0.0525856435945,0.21878790186,0.206047595001,0.583988029216,-0.121259902682,-0.234739580399,0.0903029226731,0.0572666617784,-0.0830036776406,0.0346318301635,-0.0303655579283,-0.210092529379,-0.0779533708282,-0.0433957397418,0.0815093028086,0.00049033777214,0.176373547734,-0.00503378110077,-0.0147406314025,-0.0387041195898,0.0713426552706,0.187032128449,0.0190673524923,-0.107124544151,0.113965608633,0.00141515018322,-0.255160934659,0.0267677983539,0.0904033757814,0.100254755434,0.0748747274187,0.0320595845511,-0.154004183869,0.0542522836421,-0.042620205538,-0.000630217638637,-0.10077921073,0.0450182694842,0.0698408624993,0.192738247827,0.110706459971
pc29,-0.164562353085,-0.143241488076,0.0931533207173,-0.17419119828,0.144599715884,0.0705131277211,0.146620730597,0.118166324499,-0.274486233007,0.0459725950872,-0.205974823136,0.151487223421,-0.258273179452,-0.0295441932672,-0.17100030256,0.122705212958,-0.135995360414,-0.154142944283,0.158500165558,-0.0722766304944,0.0113234747523,0.0528890792119,0.0762087366318,-0.0381494981538,0.0396751873546,0.0220377161071,0.0164045194821,-0.209336177507,0.148509046585,0.234870027089,-0.124691069364,-0.0209493070022,0.110170925327,-0.151685461793,-0.0031744318848,0.0355709656261,-0.0975593668081,-0.189997688432,0.0632557016579,0.0648500630944,-0.0244535449781,-0.042685141677,0.0839327572104,-0.0579411904246,-0.148846340854,0.184583282428,-0.00372111480579,0.199000963123,0.0373011121025,-0.109651240884,0.167823733485,-0.0988375120787,-0.183682395005,-0.0406240696789,-0.0022801538587,0.00346466211755,-0.0153117943842,-0.177261743861,0.154537238551,0.16988631878,0.071584505151
pc30,0.292423368933,-0.0666575924543,0.0720931844697,-0.0510556735207,0.0119117860565,-0.052878842772,0.0182282854851,0.386314767111,0.0751173724762,-0.0602511143815,-0.101760609541,0.0305288279497,0.0592219409553,0.0256624576372,-0.146195337703,-0.0103830609966,-0.0213499429927,-0.0222938301666,-0.0160479619021,0.168809408743,-0.0519306718468,-0.0742102527331,-0.108314845858,-0.134393273081,0.075123228965,-0.0111983028613,-0.0652908727189,-0.129789206887,0.0497437347301,-0.119086576651,0.280389390386,-0.0396844566379,-0.011210330838,-0.0100155952419,-0.183756012982,0.0997688826333,0.116146690948,-0.00363486490802,-0.00183907397488,-0.068556907697,0.0690044633885,0.134414823401,-0.20294641556,-0.108749161346,0.349184423784,0.0809535789188,0.00193852450022,-0.0901764420573,-0.0440205780638,0.0601770177303,0.128660206193,-0.121369943631,-0.162865445326,5.95975084054e-05,0.306751265546,0.00422682953102,0.0472547507301,-0.0158117840127,0.00938407724982,0.252510528291,-0.116897099573
pc31,0.100036347392,0.167621834253,0.123420075648,-0.20284658183,0.124957731221,-0.0547191979125,0.0543228437161,0.0644867609688,0.23528656712,0.299920560582,-0.0760960088541,0.0660884861493,-0.0279591953409,0.00219079050224,-0.068152503789,-0.0609386413526,-0.0465063956202,0.239847270214,-0.103561508371,-0.00521296255955,0.0728263992517,-0.128170583884,0.0248381056025,-0.0117227003783,-0.15283011844,0.107913391609,-0.0129845360019,-0.0962607111874,-0.156637406317,-0.0547282007795,0.054943867715,-0.117335025708,-0.0647825657734,0.0543078716112,0.00791990100382,-0.262059352676,-0.130754180485,0.0635041322804,0.136068098859,-0.024646112115,-0.342116022344,0.0519573768964,0.177630345585,-0.104783850643,0.127876005297,0.226561289284,0.0671596720542,0.119130836321,-0.0938088609518,-0.00464666341699,-0.136766379221,0.0432165791963,0.0296553351909,0.105341508824,-0.180258091976,0.0208622817266,0.00623289577798,0.129796622089,0.192459523049,0.0935669691608,0.178118064345
pc32,-0.0590179467581,-0.129339963204,-0.078877575941,0.198339179631,0.140759028879,-0.131046602337,-0.106338916301,0.0739783242225,-0.0476643695953,0.123258383911,-0.0677939660037,-0.188693200602,-0.0334889176533,-0.443702134653,0.0332015628771,-0.10763149078,-0.0640353173415,0.169606712547,-0.0848464349396,0.0273628649299,-0.0769546168906,-0.233167308967,0.0375047992838,0.187519859278,0.0754666093367,-0.211646174796,-0.0840768668573,-0.10253255834,0.0230082547207,0.0553466796093,0.210721252218,-0.192347839895,-0.00307689020145,0.0497809162022,-0.0903138145681,-0.0612829200351,0.0796770610063,-0.0198444041594,-0.0569949078544,0.0797350993323,0.139620601061,-0.0347841644254,0.0197692092544,-0.00919055816712,-0.169727017862,-0.114087890199,0.0453469510602,-0.0102194567161,-0.098579612265,0.0214627416918,-0.0186029810214,-0.0951899182864,-0.129649575235,0.0870756562851,-0.305326112561,0.180451079231,-0.0541930789354,-0.0977848998925,0.0615316592566,0.080061460894,-0.18167742283
pc33,-0.167655921273,-0.0507972680174,-0.0196095887593,-0.126248163073,-0.0955103132215,-0.0694143575849,-0.0792984233407,0.0547763996221,-0.0898547108246,0.163202006764,0.232096796346,0.0154658640356,0.0311632149033,0.193439373275,-0.00140662875339,0.215052517909,0.0247288708411,-0.0363173275681,-0.0441949530557,-0.0137946476164,0.220282617003,0.0519871176803,-0.0363225060478,-0.22345001763,0.128950890634,0.0405226996448,-0.0140403269844,0.26549019768,-0.0540448304504,-0.146560904577,0.224725376263,-0.148210812716,-0.17387435374,-0.0236468033033,-0.168910203621,-0.159723556719,-0.083275092877,0.00225544608685,0.0296302137029,0.0915942539993,0.256454335404,-0.0911421535901,0.136690718601,-1.71476081075e-06,0.0798647044667,-0.261253626404,-0.00881207485727,0.293042827044,-0.0357677823616,-0.0409047816954,0.13459315604,-0.0629376914228,-0.183681393814,-0.117654727376,-0.152497214725,0.0317793993062,0.0260511248043,0.0655929218087,0.0211381532522,0.0640625747201,0.0560193438436
pc34,0.208264865006,0.0113651909259,-0.0430038691947,-0.175766888209,-0.058096711133,-0.0985695804861,-0.088393949067,0.10281395297,0.147189184165,-0.103438427081,-0.0327455992491,-0.0278072165692,0.145206197332,-0.114327126913,0.287844739016,0.109630552657,-0.149652984509,-0.16009973757,-0.000367688136776,-0.0431963322363,-0.11773384696,0.0289269408744,0.073280431597,-0.14348539179,0.107895943736,-0.201235954155,-0.0208376442123,-0.070625016999,0.0695712472098,0.0491094484709,-0.286669266811,0.177661018965,0.0350410965473,0.127129588922,0.0605621417446,-0.38273830258,0.0278704507721,0.0760300455955,-0.0805339922139,0.00300254424932,0.138952608136,-0.0753812173809,0.291138199029,-0.104710992588,0.0190226368393,-0.10473536914,-0.0691575830603,-0.125527490103,-0.0498981220332,0.0178330101041,-0.000425035005159,-0.0181615928916,0.00361792438294,-0.0242687689893,-0.0203080103298,-0.158945680685,0.109415673032,-0.167335783589,0.0655389149652,0.21366453069,0.0860952758969
pc35,-0.284688457198,0.0248150437867,-0.117111007109,0.208266566408,0.140238399277,-0.0970864657912,-0.122167381963,-0.063730088897,0.0894738527212,-0.168747800646,-0.113204457042,-0.130009036713,-0.0405606562542,0.152105549101,-0.195899194752,-0.0261017452001,-0.143847815865,0.150406435911,-0.121411803921,0.249326319565,-0.0443710454366,0.128786776734,-0.139735418011,0.129863978641,0.0691963242139,-0.00315622041874,0.0917312447931,0.269612335945,0.0498426013049,0.127372857926,0.082666444983,0.251582056345,0.0985090350983,-0.176307219357,0.0816803779026,-0.20344141104,0.0168693110158,0.0287731428785,-0.0356764893419,-0.153290342486,-0.208632353472,0.122279174866,0.176195450613,0.0172090483078,0.1287751514,-0.013435620312,0.0043491676204,0.00480923465347,-0.0517839952087,-0.0396921681945,0.196497759042,-0.0877112903914,-0.0191670703747,-0.0636722366205,-0.0260339114706,-0.12376485327,0.00583606263497,-0.0368582712019,0.0550082838386,0.162807224416,-0.0998266589702
pc36,0.114115139987,-0.194549763917,0.0373229515185,-0.162029026322,0.115456713962,-0.154718052566,0.0451685495441,-0.14071648271,-0.150656664999,0.0503192077826,0.123620014747,-0.099499692906,-0.0401831657081,-0.0154322747354,-0.0662788849552,-0.00218509464413,0.0610884960751,0.162867016447,0.0826243463189,0.162045518513,-0.124924382176,-0.0718557564874,-0.116026748938,-0.188794567855,0.230343187013,0.0278263380139,0.036665521029,0.207940939451,0.083649735486,0.190366097863,-0.0392736967861,-0.0154142648686,0.00364250009199,-0.00147861912784,0.0987049285086,0.200121424471,0.232723778849,-0.164060413478,0.0471885528764,-0.0314012959352,0.042174689081,-0.0518125985596,0.00574056134855,-0.375449350305,0.0974678259672,-0.0588177826326,-0.143513169936,-0.0808988780468,0.0619201908058,-0.0666120199001,-0.108860195881,0.101072741197,0.296314914847,0.0584685268616,-0.117049458409,0.0267174258386,-0.0488039154736,0.130337868879,0.18138617547,0.0494014588804,0.136825865305
pc37,0.00616834252433,0.0750317874994,-0.0716974900762,-0.0553957270516,-0.00282863614557,0.0406565534364,0.157201835902,-0.0482305468393,-0.121424125787,0.121243223747,-0.0808099645054,0.161444184779,0.0283091028969,0.176636141091,-0.109852207858,0.171670503063,-0.131385996509,0.131724618737,-0.063050000018,0.0646291879479,0.0111635752986,-0.132878819072,-0.124326414912,0.154680129617,0.0157104818631,-0.0384377543489,-0.0468500242699,-0.0297555128442,0.111319438224,-0.115467759561,-0.14120373809,-0.0866296485066,-0.0657903181263,0.161616901125,0.0531351294078,0.0935457731049,-0.0697880383524,-0.0554220241811,0.115758438623,0.125715285156,0.102176038094,0.202476530389,0.443180945831,-0.0714359480901,0.114213035961,-0.124284972957,0.0868618376336,-0.284052120361,0.0934166767765,-0.188508029352,-0.0604727806765,-0.0329545065446,-0.0223284150669,0.0527957697719,0.0862369041105,0.132442839504,0.0116294539922,-0.0885598433268,-0.123185809952,-0.145513230337,-0.305788539699
pc38,-0.0627347627915,0.00448945420018,0.117371644857,0.0250059357184,-0.0456930557925,0.245434589412,0.0848949774259,0.0349411997323,0.133156102467,0.00407036421013,0.133876357565,-0.0898631438582,0.139408048176,-0.0985293696988,-0.336961864313,-0.334102629764,-0.00206967098445,0.044773825579,0.159959688252,0.149800307375,0.0115652694239,0.17635950825,0.0831372546025,-0.12034440155,0.0405236237473,0.0703740799399,-0.0579633213179,-0.168665626924,-0.0605287379698,-0.298294248843,-0.137738304469,0.185600948453,0.117954273939,-0.0427617568617,0.101610903502,0.00656976127173,-0.116905757945,-0.0210850318802,-0.0400126824784,0.0536291139455,0.233979726464,-0.110588611568,0.0931389985289,-0.0155661737551,0.13778581977,-0.0281994434084,-0.0816393340617,0.048126474691,0.188538344691,0.0345309763567,0.0539453503767,0.0811348569564,-0.0154512015891,0.12381142161,-0.257042073268,0.019319282029,-0.107496234701,-0.0541887931562,0.0881257053303,0.0375762730773,-0.156311617313
pc39,0.147288277059,-0.012268324836,-0.0238978976609,0.0186694182624,0.00826561277029,-0.222818111919,0.0853733210906,-0.181490246306,-0.0611376804136,-0.0805670886998,-0.219606801966,-0.0999134727307,-0.169706549616,0.0831977000723,-0.103270254908,-0.0761452938224,0.112433787344,-0.152344497632,0.0732460448773,-0.0293716183749,0.0507826051002,-0.00173310407338,0.0935806287337,0.0332515646235,0.151507780635,-0.120523687008,-0.11869223825,0.124182759071,-0.0327714167078,-0.331547164186,0.0897106396145,-0.111761941709,0.169018774195,-0.103585755851,0.0871567050013,-0.24276261213,-0.0161562209113,-0.104424179923,-0.032472314077,0.139505615682,-0.0922521119914,-0.161638991014,0.0777882195764,-0.0404278709332,-0.066997167253,0.0141279270246,0.0438880412805,-0.122948149768,0.0465542704291,0.221389782226,-0.00611276077613,0.183341231188,-0.11517617121,-0.15362648821,0.220957159714,0.148798762369,0.012721168285,0.0706953640311,0.291160148837,-0.165652250658,-0.0449534166001
pc40,-0.0804795946359,-0.0453567366766,-0.00689573929278,-0.0208212011899,0.0405049244235,-0.152185052914,-0.111027148364,0.13718493159,0.410963637896,0.092832439305,-0.0599639911933,0.0956780933951,-0.133492002033,-0.0182281248316,-0.0372279363539,0.0439333068382,-0.0189767082936,-0.150979852695,0.0184797692084,-0.0256982545174,0.0479885137589,-0.103111320796,-0.113223968619,0.150658077331,-0.0997212405287,0.0339572274333,0.0134113406694,0.0896536532024,-0.0553251151094,-0.128707122882,-0.0191852800376,-0.111960898787,0.380621733151,0.0303530365476,0.130121057697,0.240093065088,-0.0530493721546,-0.0699551216078,0.0284911543855,0.149303100878,0.0738604741155,0.00494610924821,-0.0149746985876,-0.08982793728,-0.0492946192068,-0.204782645937,0.0671680095987,-0.0374878463758,-0.0623697127242,-0.0854231498193,0.216947358569,0.284040230486,0.116796347496,-0.0526184871466,-0.0358301300612,-0.027533441864,-0.0666258930556,-0.0722152398031,-0.205419578564,0.168322411593,0.214593629424
pc41,-0.0805933556402,-0.00211559562526,-0.00869824859095,0.00364085042229,0.0156228885122,0.0977179257896,0.125012363034,0.170030503175,-0.409665377403,0.0612343006955,0.122156679444,0.0180756297527,0.0257935117323,-0.0646015116223,0.294524586736,0.15285521173,-0.133678567337,0.0387374013509,-0.1561472058,0.144659226652,0.0412639682535,-0.181610866111,-0.0581919463273,0.0067953099749,-0.169538254871,0.147174871558,0.0305463163734,0.123455906201,-0.0369810386131,-0.236202647,0.0476935143603,0.12613506067,0.387427703128,-0.0846114105059,0.111827907668,-0.103446217248,0.0529212068981,0.0802027677908,-0.117137858315,0.161888793184,-0.0377019061378,0.0625271870003,-0.163794165087,0.0961883474454,0.0806031110636,0.0337264326293,-0.0627446107763,-0.0904513184391,0.119516600513,-0.0406777828629,-0.123296999708,0.0876362922721,-0.0508985799539,0.112678257949,-0.0368515265689,-0.109848896478,-0.0316349036037,-0.0313239946886,0.161665997143,0.0699807244239,0.0353264064653
pc42,-0.0945395464974,-0.0672054168083,-0.0707512200144,0.0315438904981,-0.0441707251286,-0.171609238457,-0.0219735840857,0.292019908586,-0.0326192618807,0.00436606045855,0.230934926835,0.0480663886477,-0.0484096225043,0.0223432119649,-0.263648571202,-0.107432167203,-0.0797882364827,0.171725039065,-0.0562719143544,-0.303238129416,-0.135645896767,0.116350378018,0.0535671808187,0.0556871324751,0.0604753444834,-0.0252846140297,-0.0560477943204,0.0643673554902,-0.00328118804383,-0.0140608448398,-0.138004729043,0.112392982311,-0.0951406066314,0.185747458337,-0.147108900996,-0.164038426255,-0.0252922770785,-0.0270367537157,0.0517073773661,0.223702739876,0.0244467608048,0.249859976645,-0.25034749758,-0.0226420570622,-0.132797525115,0.0785843284566,-0.068585930888,-0.148703453431,-0.0480523866456,-0.196232429156,0.0616477155204,0.198789365568,0.0370686959544,-0.127230399607,0.0166295664936,-0.116000951673,0.144816808764,0.048875357232,0.182700531853,-0.1220913551,-0.0175761833548
pc43,0.039649018922,0.0314300875133,-0.0343327135146,-0.0531067650178,0.0915454493953,-0.177816519061,0.00874217191616,0.193626119687,-0.314525713815,0.116119076446,0.0627887821144,-0.22268470096,0.159078561209,0.0388008393965,-0.192728213849,-0.0391249590846,-0.100186709107,0.0145173406932,0.0201488298944,-0.111460906626,-0.0748174495349,0.037625269952,-0.106953187177,0.00829619110859,-0.0347046570829,0.0668311718303,0.010595995069,0.0785634884348,0.0303045152986,-0.236523344187,-0.120552983524,-0.012914433295,-0.0542316415071,-0.0188097988423,0.0166125249332,0.163791449646,-0.00605494577025,0.176235698735,-0.113310874161,-0.224709387014,-0.107792334962,-0.0639722857232,0.165333904505,-0.123506969339,-0.264463924342,0.140202778386,0.0607332145669,-0.0224170759854,-0.0113791102948,0.329969461023,-0.0194389015221,0.0471920871499,-0.0626843078573,-0.102858490897,-0.0687679735293,-0.0308342477654,0.0833977104626,-0.0459845319637,-0.345586931378,0.113353247508,0.0962352748268
pc44,-0.047689233898,0.00890201409955,0.106761532695,0.131709452738,0.011689470165,-0.0864737024942,0.203416244547,-0.198349101753,0.0862877156029,-0.116164164535,-0.0625908826399,-0.121837208353,-0.127167680584,-0.0338220255175,-0.0121486714653,0.00765004108792,-0.0288857561157,0.0721040189088,0.0208335899346,-0.127963032564,-0.0453457621334,-0.04237122663,0.00842815605423,-0.0368040254904,-0.126301409803,0.199315017883,0.056209864464,0.0607730295709,0.00471431103046,-0.0375049686186,-0.0312485535764,0.120500085494,-0.171266318335,-0.0290225665952,-0.0655870512056,-0.195917224237,0.113205130673,-0.163222512874,0.0172764289725,0.461566494044,0.0211784046428,-0.0475615474883,-0.0826830161182,-0.192533671542,0.0801722535435,0.039654304039,-0.084616362542,-0.0975246742876,0.0938613655057,0.0710996410736,-0.0354766336846,-0.193004490186,-0.185676785939,0.13194238316,-0.00088848937946,0.00562087555854,-0.0114611517823,0.0413259811247,-0.408383879988,0.161902534203,0.140357361718
pc45,0.203625298544,-0.0180549454828,-0.0361573843253,-0.0584112658768,0.0209090704785,-0.120705340882,0.00467838090699,-0.229535570437,-0.0133364727786,-0.108294926793,-0.17033646899,0.0485658645356,-0.157063695586,-0.0422152340126,-0.0269113220858,0.0201598289605,-0.111790980847,0.168001019171,-0.0269268697868,-0.0941638932283,-0.00356728075343,0.0663606292931,-0.000398069731073,-0.0564017472849,-0.409729378502,0.365397777662,-0.0109583682217,0.023699473562,0.04338338394,0.0336488422496,0.0599240256608,0.0377728078758,-0.0617145847244,0.00429418890904,-0.0791565794062,0.00388266378426,0.129165036791,0.0984679766305,0.0665155335619,-0.197008555178,0.421869816177,0.0855363944824,0.0441421719389,0.166812102709,-0.0796485777383,-0.0374948927439,0.0786209882714,-0.0421438120361,0.0812431385449,0.08872782236,0.0942612142127,0.18432287046,0.0123711619823,-0.0972223559617,-0.0786148231812,0.0110030288955,0.0466524535242,-0.0343153112828,0.196182085941,0.132084092433,-0.0622307509951
pc46,-0.0645143569206,0.0902712166124,0.133675822078,0.012795033718,-0.109266035348,0.122570845428,0.0908953526266,-0.0293017174584,0.10595546778,0.066959313871,-0.0161079830298,0.0542992909828,-0.209298635385,-0.0723939899146,-0.00871626199947,0.154555716035,-0.297468720403,0.114658398104,-0.166161741223,-0.330968239005,-0.17207787113,0.169334397682,0.0755948107274,-0.141429753131,0.180369909787,-0.112066500479,0.0553361680733,-0.0904605747408,0.0568696027404,-0.168142968692,0.0971020380763,0.0803402279203,0.0333735569682,-0.269246114883,0.225636468399,0.144229554956,0.134858479032,-0.00609772711279,-0.0222094205242,-0.113171837936,0.00877763215015,0.178306628059,-0.0538302729469,-0.0544923830471,0.0915512583975,-0.233577931599,0.0890166767731,0.00476059167867,-0.203707439467,0.157410383963,-0.18781012107,-0.0680214507929,-0.0370952566208,-0.0565067093382,-0.0589502763248,0.0384253139088,-0.0215731923001,0.0393555935025,0.0294754951243,-0.0905459329019,0.0537075038627
pc47,-0.126432682321,-0.0147466915345,0.0411523438557,0.0550347430699,0.0879976601713,-0.00865798399638,-0.0823429374027,0.0926194654723,0.0310724254671,0.080182328033,-0.0268647454646,-0.269661238408,0.106998454397,0.0310459595733,0.0660762615671,0.138074111124,-0.0958113112445,-0.197367102236,-0.0567499194439,0.0407738124004,-0.222810259128,0.310738146156,0.221796629911,-0.0479146138369,-0.242423795217,0.260880116818,0.0413022302075,0.015843311879,0.0418845301791,0.0660639238472,-0.00536120547792,-0.0844189908688,0.0547328405523,0.190679750566,-0.185586062853,0.116445584428,0.0053551200771,-0.101329190747,-0.108457843265,0.0844907774457,-0.131368070619,-0.0414648099606,0.111150650455,-0.191108328628,0.0458202614637,-0.155516237824,0.0391802444042,0.0478895403612,-0.166308453971,0.0751385485109,0.0119400007947,0.0854764977929,-0.02879385451,0.286192557805,0.153853355981,0.0740850420577,-0.0131776106597,0.0537995263101,0.177314150869,-0.149102806462,-0.150147970381
